digraph Tree {
node [shape=box, style="filled, rounded", color="black", fontname=helvetica] ;
edge [fontname=helvetica] ;
0 [label=<X<SUB>0</SUB> &le; 4.315<br/>entropy = 1.0<br/>samples = 600<br/>value = [304, 296]>, fillcolor="#e5813907"] ;
1 [label=<X<SUB>1</SUB> &le; 4.35<br/>entropy = 0.993<br/>samples = 540<br/>value = [244, 296]>, fillcolor="#399de52d"] ;
0 -> 1 [labeldistance=2.5, labelangle=45, headlabel="True"] ;
2 [label=<X<SUB>1</SUB> &le; 1.909<br/>entropy = 0.964<br/>samples = 483<br/>value = [188, 295]>, fillcolor="#399de55c"] ;
1 -> 2 ;
3 [label=<entropy = 0.935<br/>samples = 219<br/>value = [142, 77]>, fillcolor="#e5813975"] ;
2 -> 3 ;
4 [label=<entropy = 0.667<br/>samples = 264<br/>value = [46, 218]>, fillcolor="#399de5c9"] ;
2 -> 4 ;
5 [label=<X<SUB>0</SUB> &le; -1.368<br/>entropy = 0.127<br/>samples = 57<br/>value = [56, 1]>, fillcolor="#e58139fa"] ;
1 -> 5 ;
6 [label=<entropy = 0.0<br/>samples = 1<br/>value = [0, 1]>, fillcolor="#399de5ff"] ;
5 -> 6 ;
7 [label=<entropy = 0.0<br/>samples = 56<br/>value = [56, 0]>, fillcolor="#e58139ff"] ;
5 -> 7 ;
8 [label=<entropy = 0.0<br/>samples = 60<br/>value = [60, 0]>, fillcolor="#e58139ff"] ;
0 -> 8 [labeldistance=2.5, labelangle=-45, headlabel="False"] ;
}